{
  "type": "NeuralNetwork",
  "sizes": [
    4,
    8,
    8,
    4,
    1
  ],
  "layers": [
    {
      "weights": [],
      "biases": []
    },
    {
      "weights": [
        [
          -0.09840089827775955,
          0.19540296494960785,
          0.13950876891613007,
          0.0703367292881012
        ],
        [
          -1.9464561939239502,
          0.14204315841197968,
          0.31267884373664856,
          -0.1442652940750122
        ],
        [
          -0.3614318370819092,
          -0.08239638805389404,
          -0.04235440492630005,
          -0.1810189187526703
        ],
        [
          2.087597131729126,
          0.01961720548570156,
          -0.3880850374698639,
          0.15490292012691498
        ],
        [
          -1.3601760864257812,
          0.16851213574409485,
          0.016730736941099167,
          -0.13286274671554565
        ],
        [
          -0.12256602942943573,
          -0.12630338966846466,
          -0.014772946015000343,
          -0.12674269080162048
        ],
        [
          -4.390992641448975,
          0.5749028325080872,
          0.8525452613830566,
          -0.08994913846254349
        ],
        [
          1.9875819683074951,
          0.0068054101429879665,
          -0.31076183915138245,
          0.16010256111621857
        ]
      ],
      "biases": [
        -0.0818113461136818,
        0.12631136178970337,
        0.1379595547914505,
        -0.2251790165901184,
        0.04771322384476662,
        0.07274260371923447,
        0.5282613635063171,
        -0.21612481772899628
      ]
    },
    {
      "weights": [
        [
          -0.061023350805044174,
          -0.0377558134496212,
          0.08503051102161407,
          0.40852296352386475,
          -0.18380314111709595,
          0.15895500779151917,
          -0.6769696474075317,
          0.23260895907878876
        ],
        [
          -0.03329763934016228,
          0.7502912282943726,
          0.22031426429748535,
          -1.021572232246399,
          0.31009504199028015,
          0.12675854563713074,
          1.6153563261032104,
          -0.93666011095047
        ],
        [
          -0.0702013373374939,
          -0.7750714421272278,
          0.07228470593690872,
          1.1338187456130981,
          -0.6238564848899841,
          0.0815712958574295,
          -1.745895504951477,
          0.9338561296463013
        ],
        [
          -0.23876607418060303,
          0.5427564382553101,
          -0.14468543231487274,
          -0.3889606297016144,
          0.4297514855861664,
          -0.010119309648871422,
          0.7292043566703796,
          -0.5345399975776672
        ],
        [
          -0.1236356645822525,
          0.6463034749031067,
          0.12139430642127991,
          -0.9941150546073914,
          0.6348309516906738,
          -0.10965175926685333,
          1.7656100988388062,
          -0.9907715320587158
        ],
        [
          -0.11706987768411636,
          1.0350021123886108,
          0.16517409682273865,
          -1.1721405982971191,
          0.4951731860637665,
          0.04293890669941902,
          2.3521347045898438,
          -1.4596461057662964
        ],
        [
          -0.049680743366479874,
          0.6127752065658569,
          0.059647317975759506,
          -0.7889995574951172,
          0.39184895157814026,
          -0.1178077682852745,
          1.487350344657898,
          -0.7447088360786438
        ],
        [
          -0.05231306701898575,
          0.38008368015289307,
          -0.03680400922894478,
          -0.7554827928543091,
          0.19912058115005493,
          -0.011295412667095661,
          1.344279408454895,
          -0.5617038011550903
        ]
      ],
      "biases": [
        0.25831592082977295,
        -0.26614195108413696,
        0.22512857615947723,
        -0.1037951409816742,
        -0.1912865787744522,
        -0.24871857464313507,
        -0.2147069275379181,
        -0.21617330610752106
      ]
    },
    {
      "weights": [
        [
          0.6899809241294861,
          -0.9096463322639465,
          1.518802523612976,
          -0.4611479640007019,
          -1.0939850807189941,
          -1.6447532176971436,
          -0.9399582147598267,
          -0.6285485625267029
        ],
        [
          0.7113087177276611,
          -1.0818723440170288,
          1.4766879081726074,
          -0.49129554629325867,
          -0.9734520316123962,
          -1.5415023565292358,
          -0.7578136324882507,
          -0.6942015886306763
        ],
        [
          0.6449553966522217,
          -1.0924001932144165,
          1.5977450609207153,
          -0.4005621373653412,
          -1.2724155187606812,
          -1.365493893623352,
          -0.8038105368614197,
          -0.8881086111068726
        ],
        [
          0.23070988059043884,
          -0.7946990728378296,
          0.9553363919258118,
          -0.30892372131347656,
          -0.8103020787239075,
          -1.169848918914795,
          -0.8592153191566467,
          -0.40292447805404663
        ]
      ],
      "biases": [
        0.4298880994319916,
        0.3395669758319855,
        0.483917772769928,
        0.027649609372019768
      ]
    },
    {
      "weights": [
        [
          2.447880268096924,
          2.3526315689086914,
          2.5018272399902344,
          1.6056724786758423
        ]
      ],
      "biases": [
        -3.1319613456726074
      ]
    }
  ],
  "inputLookup": {
    "nota": 0,
    "tendencia": 1,
    "compromiso": 2,
    "estabilidad": 3
  },
  "inputLookupLength": 4,
  "outputLookup": {
    "exito": 0
  },
  "outputLookupLength": 1,
  "options": {
    "inputSize": 0,
    "outputSize": 0,
    "binaryThresh": 0.5,
    "hiddenLayers": [
      8,
      8,
      4
    ],
    "activation": "sigmoid",
    "learningRate": 0.05,
    "momentum": 0.2
  },
  "trainOpts": {
    "activation": "sigmoid",
    "iterations": 15000,
    "errorThresh": 0.02,
    "log": true,
    "logPeriod": 1500,
    "leakyReluAlpha": 0.01,
    "learningRate": 0.05,
    "momentum": 0.2,
    "callbackPeriod": 10,
    "timeout": "Infinity",
    "beta1": 0.9,
    "beta2": 0.999,
    "epsilon": 1e-8
  },
  "_meta": {
    "entrenadoEn": "2026-04-28T00:30:25.482Z",
    "iteraciones": 46,
    "errorFinal": 0.01965607820025563,
    "registros": 12796,
    "version": "2.0.0",
    "balanceado": true
  }
}