{
  "type": "NeuralNetwork",
  "sizes": [
    4,
    8,
    8,
    4,
    1
  ],
  "layers": [
    {
      "weights": [],
      "biases": []
    },
    {
      "weights": [
        [
          -2.300182342529297,
          0.07506872713565826,
          0.22107535600662231,
          -0.04176412895321846
        ],
        [
          1.9513015747070312,
          -0.0001243211590917781,
          -0.17881645262241364,
          -0.058720000088214874
        ],
        [
          -2.852599620819092,
          0.1889990270137787,
          0.49962306022644043,
          -0.1227445900440216
        ],
        [
          1.2675318717956543,
          -0.03545869514346123,
          0.05280004069209099,
          0.2493080198764801
        ],
        [
          -4.3589701652526855,
          0.38831132650375366,
          0.7810769081115723,
          0.006532836239784956
        ],
        [
          0.12217060476541519,
          0.06399349868297577,
          0.009451871737837791,
          0.1607384830713272
        ],
        [
          0.4443022608757019,
          0.2144375592470169,
          0.027685202658176422,
          0.06751910597085953
        ],
        [
          -1.0376290082931519,
          0.15341931581497192,
          -0.06482502073049545,
          -0.21182234585285187
        ]
      ],
      "biases": [
        0.34043389558792114,
        -0.07351639121770859,
        0.3715423047542572,
        0.036192815750837326,
        0.6254612803459167,
        0.010413571260869503,
        0.19256247580051422,
        -0.06013781577348709
      ]
    },
    {
      "weights": [
        [
          0.7845802903175354,
          -0.8911136388778687,
          1.0517643690109253,
          -0.8583083748817444,
          1.5291298627853394,
          -0.11107836663722992,
          -0.26544350385665894,
          0.2533707618713379
        ],
        [
          1.8102034330368042,
          -1.9785934686660767,
          2.090423583984375,
          -1.239975929260254,
          3.2732253074645996,
          -0.44931888580322266,
          -0.49591562151908875,
          0.6235055923461914
        ],
        [
          0.35620832443237305,
          -0.6324779987335205,
          0.6842713952064514,
          -0.5843324065208435,
          1.1326823234558105,
          0.01358075812458992,
          -0.29490453004837036,
          0.2841416597366333
        ],
        [
          0.41628092527389526,
          -0.6652269959449768,
          0.5537667274475098,
          -0.46037614345550537,
          1.020686149597168,
          -0.17332130670547485,
          -0.12401039153337479,
          0.29824310541152954
        ],
        [
          0.06655275076627731,
          0.06038285791873932,
          0.2082555890083313,
          0.12402383983135223,
          0.2132151871919632,
          0.17595651745796204,
          0.1394043266773224,
          -0.1353588104248047
        ],
        [
          0.41300275921821594,
          -0.7516899108886719,
          0.770516574382782,
          -0.5907723307609558,
          1.3916935920715332,
          -0.057941678911447525,
          -0.5059638619422913,
          0.19902466237545013
        ],
        [
          0.380024790763855,
          -0.314929336309433,
          0.6676795482635498,
          -0.5214068293571472,
          0.9889052510261536,
          -0.21447379887104034,
          -0.3673091232776642,
          -0.01558789424598217
        ],
        [
          0.0824657678604126,
          -0.10308974981307983,
          0.25115126371383667,
          -0.057123370468616486,
          0.07989431172609329,
          -0.1492081731557846,
          0.03851231560111046,
          -0.027809543535113335
        ]
      ],
      "biases": [
        -0.4911401569843292,
        -0.8280445337295532,
        -0.4033087491989136,
        -0.4013570249080658,
        0.021335769444704056,
        -0.2857584059238434,
        -0.32659250497817993,
        0.01848272606730461
      ]
    },
    {
      "weights": [
        [
          -0.5802136063575745,
          -1.5571517944335938,
          -0.36301523447036743,
          -0.5801173448562622,
          -0.00752504076808691,
          -0.4782300591468811,
          -0.38162803649902344,
          0.07936275005340576
        ],
        [
          -1.2080953121185303,
          -2.659419298171997,
          -0.7504484057426453,
          -0.562796950340271,
          0.4908716082572937,
          -0.7384645938873291,
          -0.37951943278312683,
          0.3751829266548157
        ],
        [
          -0.874888002872467,
          -2.245879650115967,
          -0.5066887736320496,
          -0.34786710143089294,
          0.3447740972042084,
          -0.7904798984527588,
          -0.34873712062835693,
          0.11550091207027435
        ],
        [
          -0.8339654803276062,
          -2.199286937713623,
          -0.4028718173503876,
          -0.41606444120407104,
          0.19726327061653137,
          -0.6360979080200195,
          -0.5438315868377686,
          0.1878470629453659
        ]
      ],
      "biases": [
        0.048609428107738495,
        1.2728441953659058,
        0.7585722804069519,
        0.7449065446853638
      ]
    },
    {
      "weights": [
        [
          1.7241814136505127,
          3.2206408977508545,
          2.609489679336548,
          2.4946720600128174
        ]
      ],
      "biases": [
        -3.1720778942108154
      ]
    }
  ],
  "inputLookup": {
    "nota": 0,
    "tendencia": 1,
    "compromiso": 2,
    "estabilidad": 3
  },
  "inputLookupLength": 4,
  "outputLookup": {
    "exito": 0
  },
  "outputLookupLength": 1,
  "options": {
    "inputSize": 0,
    "outputSize": 0,
    "binaryThresh": 0.5,
    "hiddenLayers": [
      8,
      8,
      4
    ],
    "activation": "sigmoid",
    "learningRate": 0.05,
    "momentum": 0.2
  },
  "trainOpts": {
    "activation": "sigmoid",
    "iterations": 15000,
    "errorThresh": 0.02,
    "log": true,
    "logPeriod": 1500,
    "leakyReluAlpha": 0.01,
    "learningRate": 0.05,
    "momentum": 0.2,
    "callbackPeriod": 10,
    "timeout": "Infinity",
    "beta1": 0.9,
    "beta2": 0.999,
    "epsilon": 1e-8
  },
  "_meta": {
    "entrenadoEn": "2026-04-24T01:54:19.981Z",
    "iteraciones": 56,
    "errorFinal": 0.017054578432932888,
    "registros": 12796,
    "version": "2.0.0",
    "balanceado": true
  }
}