{
  "type": "NeuralNetwork",
  "sizes": [
    4,
    8,
    8,
    4,
    1
  ],
  "layers": [
    {
      "weights": [],
      "biases": []
    },
    {
      "weights": [
        [
          -2.0954251289367676,
          0.09796726703643799,
          0.09768786281347275,
          -0.158173069357872
        ],
        [
          -1.778003215789795,
          -0.05762084200978279,
          0.11289385706186295,
          -0.08129895478487015
        ],
        [
          0.3078801929950714,
          0.019975507631897926,
          -0.027061324566602707,
          -0.04321412742137909
        ],
        [
          1.8857054710388184,
          -0.13887807726860046,
          -0.13549873232841492,
          0.1186382919549942
        ],
        [
          0.6742393970489502,
          0.051370102912187576,
          -0.09091970324516296,
          0.3163718581199646
        ],
        [
          -3.118610382080078,
          0.3745024800300598,
          0.37636512517929077,
          0.0028657331131398678
        ],
        [
          2.394134521484375,
          -0.10279303789138794,
          -0.3493923842906952,
          0.03409840539097786
        ],
        [
          -3.522503614425659,
          0.28843751549720764,
          0.8056653141975403,
          -0.22286777198314667
        ]
      ],
      "biases": [
        0.3996335566043854,
        0.1874549835920334,
        0.0397365540266037,
        -0.11320149153470993,
        0.23216350376605988,
        0.4181479215621948,
        -0.21160489320755005,
        0.3969590663909912
      ]
    },
    {
      "weights": [
        [
          0.9318138957023621,
          0.6399451494216919,
          -0.36103177070617676,
          -1.03766930103302,
          -0.46570059657096863,
          1.4338411092758179,
          -1.555171251296997,
          1.6589306592941284
        ],
        [
          0.7006562352180481,
          0.4930547773838043,
          -0.2899402678012848,
          -0.8192132711410522,
          -0.47113701701164246,
          0.978533148765564,
          -0.8640052080154419,
          1.2362385988235474
        ],
        [
          0.3465607166290283,
          0.21600791811943054,
          -0.23114745318889618,
          -0.6687082648277283,
          -0.25982609391212463,
          0.713476836681366,
          -0.7983357310295105,
          0.723370373249054
        ],
        [
          0.9826895594596863,
          0.761607825756073,
          -0.1362854689359665,
          -1.0864791870117188,
          -0.40559160709381104,
          1.3204221725463867,
          -1.1857861280441284,
          1.5659878253936768
        ],
        [
          0.6659218668937683,
          0.6103024482727051,
          -0.15176084637641907,
          -0.7153560519218445,
          -0.4439587891101837,
          0.7682758569717407,
          -0.9030414819717407,
          1.1310603618621826
        ],
        [
          0.35520854592323303,
          0.25442707538604736,
          -0.24918363988399506,
          -0.5462112426757812,
          -0.4281418025493622,
          0.7999576926231384,
          -0.7369169592857361,
          0.8231034278869629
        ],
        [
          0.9407087564468384,
          0.8942139744758606,
          -0.1318109780550003,
          -1.289485216140747,
          -0.39246270060539246,
          1.4760618209838867,
          -1.3582026958465576,
          1.6223782300949097
        ],
        [
          0.14869673550128937,
          0.37496110796928406,
          -0.18987779319286346,
          -0.5845697522163391,
          -0.26442912220954895,
          0.4995401203632355,
          -0.4590025842189789,
          0.3888929784297943
        ]
      ],
      "biases": [
        -0.28574907779693604,
        -0.44270384311676025,
        -0.15393249690532684,
        -0.622357964515686,
        -0.48222842812538147,
        -0.36505934596061707,
        -0.5028473734855652,
        -0.0729273185133934
      ]
    },
    {
      "weights": [
        [
          -0.9635741710662842,
          -0.7469829320907593,
          -0.5317716002464294,
          -1.1327372789382935,
          -0.7394054532051086,
          -0.3599441647529602,
          -1.1828508377075195,
          0.026689404621720314
        ],
        [
          -1.170655608177185,
          -0.6612357497215271,
          -0.26807913184165955,
          -0.9743818044662476,
          -0.5342184901237488,
          -0.5065486431121826,
          -1.2959502935409546,
          -0.24411776661872864
        ],
        [
          -1.08603036403656,
          -0.6351228952407837,
          -0.2876887917518616,
          -1.1791046857833862,
          -0.5518937706947327,
          -0.48201367259025574,
          -1.1661332845687866,
          -0.0584176741540432
        ],
        [
          -1.5117779970169067,
          -0.9121447801589966,
          -0.43027573823928833,
          -1.1608871221542358,
          -0.8300729990005493,
          -0.4687245786190033,
          -1.3130460977554321,
          -0.255346417427063
        ]
      ],
      "biases": [
        0.8021605610847473,
        0.8213154673576355,
        0.7124876379966736,
        1.5510817766189575
      ]
    },
    {
      "weights": [
        [
          2.503828763961792,
          2.517906904220581,
          2.40141224861145,
          3.1943299770355225
        ]
      ],
      "biases": [
        -3.030639886856079
      ]
    }
  ],
  "inputLookup": {
    "nota": 0,
    "tendencia": 1,
    "compromiso": 2,
    "estabilidad": 3
  },
  "inputLookupLength": 4,
  "outputLookup": {
    "exito": 0
  },
  "outputLookupLength": 1,
  "options": {
    "inputSize": 0,
    "outputSize": 0,
    "binaryThresh": 0.5,
    "hiddenLayers": [
      8,
      8,
      4
    ],
    "activation": "sigmoid",
    "learningRate": 0.05,
    "momentum": 0.2
  },
  "trainOpts": {
    "activation": "sigmoid",
    "iterations": 15000,
    "errorThresh": 0.02,
    "log": true,
    "logPeriod": 1500,
    "leakyReluAlpha": 0.01,
    "learningRate": 0.05,
    "momentum": 0.2,
    "callbackPeriod": 10,
    "timeout": "Infinity",
    "beta1": 0.9,
    "beta2": 0.999,
    "epsilon": 1e-8
  },
  "_meta": {
    "entrenadoEn": "2026-04-24T22:13:55.693Z",
    "iteraciones": 69,
    "errorFinal": 0.01893411271235919,
    "registros": 12757,
    "version": "2.0.0",
    "balanceado": true
  }
}