{
  "type": "NeuralNetwork",
  "sizes": [
    4,
    6,
    6,
    1
  ],
  "layers": [
    {
      "weights": [],
      "biases": []
    },
    {
      "weights": [
        [
          10.583426475524902,
          -14.82859992980957,
          -0.38806861639022827,
          2.4687912464141846
        ],
        [
          -4.231829643249512,
          -0.47757574915885925,
          -0.13073787093162537,
          1.9472581148147583
        ],
        [
          4.675666809082031,
          5.462329864501953,
          -1.640070915222168,
          -4.070333957672119
        ],
        [
          1.000269889831543,
          0.1973460614681244,
          -0.0646498054265976,
          -0.1846744269132614
        ],
        [
          -7.300804615020752,
          -5.604424953460693,
          1.7229013442993164,
          4.50480842590332
        ],
        [
          3.48630428314209,
          5.164380073547363,
          -0.8453313112258911,
          -4.345940589904785
        ]
      ],
      "biases": [
        -0.5209811925888062,
        -0.30129706859588623,
        -1.184262752532959,
        0.17987307906150818,
        1.61332106590271,
        -1.034351110458374
      ]
    },
    {
      "weights": [
        [
          4.901041507720947,
          -0.5390839576721191,
          2.8437299728393555,
          0.7583487629890442,
          -0.8492059707641602,
          2.601921319961548
        ],
        [
          5.726467132568359,
          -0.581243634223938,
          3.0321593284606934,
          0.8029038310050964,
          -1.2642802000045776,
          3.1191837787628174
        ],
        [
          2.5817220211029053,
          -0.7616374492645264,
          1.3753142356872559,
          0.9608458280563354,
          -1.7931950092315674,
          1.1111109256744385
        ],
        [
          1.2924193143844604,
          0.442397803068161,
          0.6345162391662598,
          1.0289548635482788,
          0.5644109845161438,
          0.8275257349014282
        ],
        [
          9.165681838989258,
          -2.4871714115142822,
          5.489812850952148,
          1.2068935632705688,
          -5.178223609924316,
          5.101690769195557
        ],
        [
          6.4126362800598145,
          -0.7745527029037476,
          3.401535749435425,
          0.8746358752250671,
          -1.5296547412872314,
          3.0947377681732178
        ]
      ],
      "biases": [
        0.7157808542251587,
        0.8693693280220032,
        0.6579260230064392,
        1.665110468864441,
        0.3519500494003296,
        0.8897563219070435
      ]
    },
    {
      "weights": [
        [
          1.3069300651550293,
          2.0592875480651855,
          -1.6718873977661133,
          -2.513601541519165,
          5.15006160736084,
          2.6722731590270996
        ]
      ],
      "biases": [
        -4.139148712158203
      ]
    }
  ],
  "inputLookup": {
    "nota": 0,
    "tendencia": 1,
    "compromiso": 2,
    "estabilidad": 3
  },
  "inputLookupLength": 4,
  "outputLookup": {
    "exito": 0
  },
  "outputLookupLength": 1,
  "options": {
    "inputSize": 0,
    "outputSize": 0,
    "binaryThresh": 0.5,
    "hiddenLayers": [
      6,
      6
    ],
    "activation": "sigmoid",
    "learningRate": 0.01,
    "momentum": 0.1
  },
  "trainOpts": {
    "activation": "sigmoid",
    "iterations": 20000,
    "errorThresh": 0.005,
    "log": true,
    "logPeriod": 2000,
    "leakyReluAlpha": 0.01,
    "learningRate": 0.01,
    "momentum": 0.1,
    "callbackPeriod": 10,
    "timeout": "Infinity",
    "beta1": 0.9,
    "beta2": 0.999,
    "epsilon": 1e-8
  },
  "_meta": {
    "entrenadoEn": "2026-04-10T18:40:52.174Z",
    "iteraciones": 20000,
    "errorFinal": 0.005326937427749069,
    "registros": 9691,
    "version": "1.0.0"
  }
}